<?xml version="1.0"?>
<opencv_storage>
<cascade>
  <stageType>BOOST</stageType>
  <featureType>LBP</featureType>
  <height>16</height>
  <width>16</width>
  <stageParams>
    <boostType>GAB</boostType>
    <minHitRate>9.9000000953674316e-01</minHitRate>
    <maxFalseAlarm>5.0000000000000000e-01</maxFalseAlarm>
    <weightTrimRate>8.5000002384185791e-01</weightTrimRate>
    <maxDepth>1</maxDepth>
    <maxWeakCount>100</maxWeakCount></stageParams>
  <featureParams>
    <maxCatCount>256</maxCatCount>
    <featSize>1</featSize></featureParams>
  <stageNum>23</stageNum>
  <stages>
    <!-- stage 0 -->
    <_>
      <maxWeakCount>4</maxWeakCount>
      <stageThreshold>-9.9658167362213135e-01</stageThreshold>
      <weakClassifiers>
        <_>
          <internalNodes>
            0 -1 48 -803157816 1346668672 77727880 -2069888892
            -2071938870 348454632 -1912559382 67307658</internalNodes>
          <leafValues>
            -6.0714286565780640e-01 7.6990050077438354e-01</leafValues></_>
        <_>
          <internalNodes>
            0 -1 80 -1845460840 -787462128 -1058763507 296815873
            -530478886 297074560 740853899 397084683</internalNodes>
          <leafValues>
            -5.5518203973770142e-01 6.9786661863327026e-01</leafValues></_>
        <_>
          <internalNodes>
            0 -1 12 -1633115566 -249254206 126785047 21014093 -542005511
            -1884107072 -1137242945 252513805</internalNodes>
          <leafValues>
            -5.4021936655044556e-01 6.2371653318405151e-01</leafValues></_>
        <_>
          <internalNodes>
            0 -1 79 -261821222 1355911556 -2147483508 -246988607
            -797951794 1343242272 -1434342518 844615242</internalNodes>
          <leafValues>
            -6.7108076810836792e-01 4.6700289845466614e-01</leafValues></_></weakClassifiers></_>
    <!-- stage 1 -->
    <_>
      <maxWeakCount>5</maxWeakCount>
      <stageThreshold>-2.9401367902755737e-01</stageThreshold>
      <weakClassifiers>
        <_>
          <internalNodes>
            0 -1 100 1350615180 1360129280 1688472588 -236763903
            -1274806112 2127887684 -1532719990 619120130</internalNodes>
          <leafValues>
            -3.8974970579147339e-01 7.3615944385528564e-01</leafValues></_>
        <_>
          <internalNodes>
            0 -1 157 2621442 860894325 981085816 846363350 -119796732
            -723591355 -1896603942 -1195737147</internalNodes>
          <leafValues>
            -4.8335391283035278e-01 6.0120522975921631e-01</leafValues></_>
        <_>
          <internalNodes>
            0 -1 8 57584 -1879048112 536871065 17629188 -2011125515
            -1359898462 -384980849 226429194</internalNodes>
          <leafValues>
            -5.5685454607009888e-01 5.3073018789291382e-01</leafValues></_>
        <_>
          <internalNodes>
            0 -1 113 -187187062 -716079036 138428620 -1761540989
            -804999973 -787464176 -1560246133 -87080561</internalNodes>
          <leafValues>
            -5.4837673902511597e-01 5.7932329177856445e-01</leafValues></_>
        <_>
          <internalNodes>
            0 -1 120 1342292100 -1321205632 -1601929088 -205471584
            545997312 -116391808 -1878849506 -154548158</internalNodes>
          <leafValues>
            -4.8782265186309814e-01 6.4343065023422241e-01</leafValues></_></weakClassifiers></_>
    <!-- stage 2 -->
    <_>
      <maxWeakCount>5</maxWeakCount>
      <stageThreshold>-1.0559558123350143e-01</stageThreshold>
      <weakClassifiers>
        <_>
          <internalNodes>
            0 -1 123 -1673517560 -1707561432 -1359446444 -1975763080
            208669792 -1636417540 -1360233252 -1430645744</internalNodes>
          <leafValues>
            -2.9233679175376892e-01 7.8457355499267578e-01</leafValues></_>
        <_>
          <internalNodes>
            0 -1 152 -1239096064 -1105175308 -319885664 -727651092
            240387396 1315209076 -1907827476 -1532295748</internalNodes>
          <leafValues>
            -4.0152981877326965e-01 6.7825734615325928e-01</leafValues></_>
        <_>
          <internalNodes>
            0 -1 77 -2013233152 -1845429024 1072573004 -796369068
            -1128462644 536805367 -1612915636 -1299774332</internalNodes>
          <leafValues>
            -4.8095393180847168e-01 6.1276757717132568e-01</leafValues></_>
        <_>
          <internalNodes>
            0 -1 10 -800332630 -119771424 -354152918 -924803922
            -50874881 -730694148 -1205616706 -267936198</internalNodes>
          <leafValues>
            -5.2652943134307861e-01 5.9375840425491333e-01</leafValues></_>
        <_>
          <internalNodes>
            0 -1 117 -236918578 -539700926 1180961992 -236108024
            -531600320 1448476452 -1608650806 460308699</internalNodes>
          <leafValues>
            -5.6094312667846680e-01 6.4300972223281860e-01</leafValues></_></weakClassifiers></_>
    <!-- stage 3 -->
    <_>
      <maxWeakCount>6</maxWeakCount>
      <stageThreshold>-9.1923582553863525e-01</stageThreshold>
      <weakClassifiers>
        <_>
          <internalNodes>
            0 -1 6 -825963298 -19992964 -856895748 -817565972
            -1879787781 -721375 -892264821 -832519152</internalNodes>
          <leafValues>
            -3.3551913499832153e-01 7.4781197309494019e-01</leafValues></_>
        <_>
          <internalNodes>
            0 -1 154 3145776 943091224 981384958 -1202700764 -1124322280
            -1661493378 -865067532 -1431698399</internalNodes>
          <leafValues>
            -4.9750792980194092e-01 5.4068261384963989e-01</leafValues></_>
        <_>
          <internalNodes>
            0 -1 26 -1023363376 1535672524 134227165 1032388637
            -2004252430 -1952743296 -666879797 1259323433</internalNodes>
          <leafValues>
            -4.9556562304496765e-01 5.4306405782699585e-01</leafValues></_>
        <_>
          <internalNodes>
            0 -1 59 -666861028 -787087344 201327065 386236424 43555064
            -1199464280 302090379 420458938</internalNodes>
          <leafValues>
            -6.4142227172851562e-01 3.4518477320671082e-01</leafValues></_>
        <_>
          <internalNodes>
            0 -1 134 -822551152 -1198981592 -1360232980 -54854144
            -352566188 -1107525633 787754639 -1561375629</internalNodes>
          <leafValues>
            -4.5418143272399902e-01 5.5108016729354858e-01</leafValues></_>
        <_>
          <internalNodes>
            0 -1 53 -765923076 -16776192 1073742173 931135897
            -1960279311 -1429589759 143233183 571148425</internalNodes>
          <leafValues>
            -5.6497758626937866e-01 4.3998867273330688e-01</leafValues></_></weakClassifiers></_>
    <!-- stage 4 -->
    <_>
      <maxWeakCount>5</maxWeakCount>
      <stageThreshold>-2.9963204264640808e-01</stageThreshold>
      <weakClassifiers>
        <_>
          <internalNodes>
            0 -1 39 -1935620016 -582174712 -1528249231 1434451968
            1244048632 -554897748 -2080341878 2949130</internalNodes>
          <leafValues>
            -2.9712459444999695e-01 7.4452793598175049e-01</leafValues></_>
        <_>
          <internalNodes>
            0 -1 111 -805252968 -788526976 1140916636 1426128896 41210
            -109018968 134521050 285444235</internalNodes>
          <leafValues>
            -5.0594836473464966e-01 5.5867367982864380e-01</leafValues></_>
        <_>
          <internalNodes>
            0 -1 46 -1073184616 -1861222372 17859645 -1761542141
            -2139031362 1233715200 -1341650261 463143051</internalNodes>
          <leafValues>
            -5.6797552108764648e-01 4.6060475707054138e-01</leafValues></_>
        <_>
          <internalNodes>
            0 -1 5 -201322376 2080376914 151065047 -117243632
            -1199030096 -1987051384 -1535096647 529467931</internalNodes>
          <leafValues>
            -6.0285747051239014e-01 4.3373662233352661e-01</leafValues></_>
        <_>
          <internalNodes>
            0 -1 89 -2145385455 -1892798726 469655541 -576491599
            -1342218257 -318801953 -1648914465 -1148037930</internalNodes>
          <leafValues>
            -3.9090046286582947e-01 6.7084264755249023e-01</leafValues></_></weakClassifiers></_>
    <!-- stage 5 -->
    <_>
      <maxWeakCount>5</maxWeakCount>
      <stageThreshold>-1.6791173815727234e-01</stageThreshold>
      <weakClassifiers>
        <_>
          <internalNodes>
            0 -1 82 -2145220608 285277440 1285867520 -37683232 71567052
            1063550917 -319509364 -186386446</internalNodes>
          <leafValues>
            -1.7863720655441284e-01 7.5291693210601807e-01</leafValues></_>
        <_>
          <internalNodes>
            0 -1 88 -687956548 1014513365 2121973649 -764799881
            -1644405712 -831103114 -1090593588 -1096151238</internalNodes>
          <leafValues>
            -3.2281950116157532e-01 6.4274293184280396e-01</leafValues></_>
        <_>
          <internalNodes>
            0 -1 58 -1600070528 -118194604 -302018819 -1120170411
            -1342665478 -1241518145 -1363475234 -1431370733</internalNodes>
          <leafValues>
            -4.2229634523391724e-01 5.1436924934387207e-01</leafValues></_>
        <_>
          <internalNodes>
            0 -1 98 1501606392 -749682688 -1086303991 1435534657
            -1467957106 22046816 321169802 397116042</internalNodes>
          <leafValues>
            -6.7569035291671753e-01 3.2929649949073792e-01</leafValues></_>
        <_>
          <internalNodes>
            0 -1 144 -463679916 882949984 506396232 -1125581728
            1582581252 -42762412 -859525652 -1091586892</internalNodes>
          <leafValues>
            -4.3668812513351440e-01 5.4846590757369995e-01</leafValues></_></weakClassifiers></_>
    <!-- stage 6 -->
    <_>
      <maxWeakCount>5</maxWeakCount>
      <stageThreshold>-3.8085493445396423e-01</stageThreshold>
      <weakClassifiers>
        <_>
          <internalNodes>
            0 -1 161 -138434046 573243178 721354272 1117844896 -17938880
            67534678 -925544368 -1066994288</internalNodes>
          <leafValues>
            -3.2706373929977417e-01 7.6010513305664062e-01</leafValues></_>
        <_>
          <internalNodes>
            0 -1 151 -70255741 604676746 -1845440272 -1073500160
            1644666881 19103745 -1056526108 -990395708</internalNodes>
          <leafValues>
            -5.0695627927780151e-01 5.6990414857864380e-01</leafValues></_>
        <_>
          <internalNodes>
            0 -1 153 -1480855897 -1499269592 -1358955419 -1029636436
            471419904 -1384648964 -1929705788 -456139448</internalNodes>
          <leafValues>
            -4.9659350514411926e-01 5.3515750169754028e-01</leafValues></_>
        <_>
          <internalNodes>
            0 -1 24 -386930964 -544872948 1145477221 -922553588
            -1042566917 -427696128 -134940455 -967574155</internalNodes>
          <leafValues>
            -6.3972991704940796e-01 3.9585584402084351e-01</leafValues></_>
        <_>
          <internalNodes>
            0 -1 14 -424417525 1156493039 -1224839582 -126226440
            -176589456 1683472222 -427858860 -252185503</internalNodes>
          <leafValues>
            -4.7908589243888855e-01 5.5390280485153198e-01</leafValues></_></weakClassifiers></_>
    <!-- stage 7 -->
    <_>
      <maxWeakCount>7</maxWeakCount>
      <stageThreshold>-4.6404373645782471e-01</stageThreshold>
      <weakClassifiers>
        <_>
          <internalNodes>
            0 -1 69 -220136902 354483874 2107673728 -1650127872
            1323570424 1553231852 -460960597 15156227</internalNodes>
          <leafValues>
            -2.3809523880481720e-01 7.2171652317047119e-01</leafValues></_>
        <_>
          <internalNodes>
            0 -1 52 -79651632 -1721989112 -504041287 -721317888
            -117921794 -1892628836 -1811652178 1595930378</internalNodes>
          <leafValues>
            -4.0803372859954834e-01 5.2702540159225464e-01</leafValues></_>
        <_>
          <internalNodes>
            0 -1 129 -791428914 276873730 268435468 -1081917440
            -801058576 -259972958 684443850 1340064018</internalNodes>
          <leafValues>
            -4.9496063590049744e-01 5.0057196617126465e-01</leafValues></_>
        <_>
          <internalNodes>
            0 -1 50 -804474690 -720170926 16804765 1560477961 1754043313
            -626884432 -1841198901 2131733419</internalNodes>
          <leafValues>
            -5.3615361452102661e-01 4.4314199686050415e-01</leafValues></_>
        <_>
          <internalNodes>
            0 -1 61 -805269288 1476448256 822215833 222019584 -771708749
            -655155030 -1711242580 460783627</internalNodes>
          <leafValues>
            -5.5903530120849609e-01 4.3647718429565430e-01</leafValues></_>
        <_>
          <internalNodes>
            0 -1 95 1904459402 1368885446 83954128 -276049663 809738686
            1937809538 -209679942 1289480387</internalNodes>
          <leafValues>
            -5.3794121742248535e-01 4.3320313096046448e-01</leafValues></_>
        <_>
          <internalNodes>
            0 -1 147 -801898496 359174146 268468671 620888076 814334136
            -2004285416 -1609973585 9683202</internalNodes>
          <leafValues>
            -6.0007566213607788e-01 4.5133724808692932e-01</leafValues></_></weakClassifiers></_>
    <!-- stage 8 -->
    <_>
      <maxWeakCount>6</maxWeakCount>
      <stageThreshold>-1.0001096129417419e-01</stageThreshold>
      <weakClassifiers>
        <_>
          <internalNodes>
            0 -1 43 1170734818 1149562094 -856651104 1208274176
            1154078392 -734994952 1152690304 1359332298</internalNodes>
          <leafValues>
            -2.6153847575187683e-01 7.4545454978942871e-01</leafValues></_>
        <_>
          <internalNodes>
            0 -1 74 1430780618 1090840802 -296915910 293910272
            1414755476 1414274204 -50392302 1363669899</internalNodes>
          <leafValues>
            -4.6452531218528748e-01 5.8561563491821289e-01</leafValues></_>
        <_>
          <internalNodes>
            0 -1 143 -773863738 1560328960 -1811906534 530629138
            1145569408 1442840589 -528283510 1617154643</internalNodes>
          <leafValues>
            -5.2010959386825562e-01 4.7854927182197571e-01</leafValues></_>
        <_>
          <internalNodes>
            0 -1 65 -772807030 273021070 164096 -709100757 1380810986
            1157627968 1891864312 2012734083</internalNodes>
          <leafValues>
            -5.9592616558074951e-01 3.7076261639595032e-01</leafValues></_>
        <_>
          <internalNodes>
            0 -1 11 -934351148 1380220928 -2105537904 2037163534
            -527752967 -2013003776 -1039692952 1145563662</internalNodes>
          <leafValues>
            -5.6631773710250854e-01 4.6520274877548218e-01</leafValues></_>
        <_>
          <internalNodes>
            0 -1 113 1171751566 1346468614 1077936144 1896038947
            1087373514 1208025152 -350035926 865258194</internalNodes>
          <leafValues>
            -6.4874976873397827e-01 3.4305864572525024e-01</leafValues></_></weakClassifiers></_>
    <!-- stage 9 -->
    <_>
      <maxWeakCount>8</maxWeakCount>
      <stageThreshold>-8.2276552915573120e-01</stageThreshold>
      <weakClassifiers>
        <_>
          <internalNodes>
            0 -1 84 1613241416 1012973408 -1381987328 -173945856
            1161840098 1559556020 -1532752758 614927874</internalNodes>
          <leafValues>
            -3.5830619931221008e-01 6.5564090013504028e-01</leafValues></_>
        <_>
          <internalNodes>
            0 -1 87 -592569316 -902234736 1071415219 2122218759
            1576819920 -1074364547 -293691674 -88424814</internalNodes>
          <leafValues>
            -3.2661440968513489e-01 5.4484200477600098e-01</leafValues></_>
        <_>
          <internalNodes>
            0 -1 107 -1971314512 -2071461820 -1878978401 -1613414143
            -108463671 -1199538047 -2004680462 -1366531391</internalNodes>
          <leafValues>
            -4.8048162460327148e-01 4.1331478953361511e-01</leafValues></_>
        <_>
          <internalNodes>
            0 -1 37 -798108950 1346410372 1627414666 -150007158
            -268398454 -2109689710 1778885251 59239087</internalNodes>
          <leafValues>
            -5.7436913251876831e-01 3.0151191353797913e-01</leafValues></_>
        <_>
          <internalNodes>
            0 -1 31 -1399643113 1480790035 420515857 -234733553
            847446018 1761607744 1745561649 -165492186</internalNodes>
          <leafValues>
            -4.9575909972190857e-01 4.0834814310073853e-01</leafValues></_>
        <_>
          <internalNodes>
            0 -1 7 -502583017 -301821948 286265489 -140765040 1375887395
            -348454911 -502636400 -522825672</internalNodes>
          <leafValues>
            -5.5903369188308716e-01 3.4762001037597656e-01</leafValues></_>
        <_>
          <internalNodes>
            0 -1 62 -251481890 273711236 -2054799339 -1760099254
            1107339673 319857280 -519943541 1703894535</internalNodes>
          <leafValues>
            -5.0605708360671997e-01 4.2855924367904663e-01</leafValues></_>
        <_>
          <internalNodes>
            0 -1 103 509177760 -1140720625 1290202115 -1887306205
            1011699165 -286031873 -562755578 -87166233</internalNodes>
          <leafValues>
            -3.7481498718261719e-01 5.6819528341293335e-01</leafValues></_></weakClassifiers></_>
    <!-- stage 10 -->
    <_>
      <maxWeakCount>8</maxWeakCount>
      <stageThreshold>-8.3875232934951782e-01</stageThreshold>
      <weakClassifiers>
        <_>
          <internalNodes>
            0 -1 15 1590621278 -587813254 -454365570 1424023050
            1542979270 -402652128 1380970159 1213393450</internalNodes>
          <leafValues>
            -2.6992288231849670e-01 6.8590939044952393e-01</leafValues></_>
        <_>
          <internalNodes>
            0 -1 108 -1050222198 -750074110 -51721526 1594633354
            -1059482626 -795306687 1960631256 1091171243</internalNodes>
          <leafValues>
            -4.1743850708007812e-01 4.6786150336265564e-01</leafValues></_>
        <_>
          <internalNodes>
            0 -1 97 -253496102 -413534705 81808704 -575188222 -456765790
            -716051296 -2052592465 1275059435</internalNodes>
          <leafValues>
            -3.8811311125755310e-01 4.7331613302230835e-01</leafValues></_>
        <_>
          <internalNodes>
            0 -1 40 1456522940 -1035808442 21599 2132132369 1356237486
            1275887664 -2109396422 1530858571</internalNodes>
          <leafValues>
            -4.9872592091560364e-01 3.8591104745864868e-01</leafValues></_>
        <_>
          <internalNodes>
            0 -1 21 -1966812940 -1742954432 1237354953 1432848515
            -1877675094 -1951686632 19391167 1594342290</internalNodes>
          <leafValues>
            -5.3092509508132935e-01 3.6361733078956604e-01</leafValues></_>
        <_>
          <internalNodes>
            0 -1 130 514313344 -1092034766 -286085949 -538771711
            1824939143 -1082163203 -823380326 -152078441</internalNodes>
          <leafValues>
            -4.2802265286445618e-01 4.7125229239463806e-01</leafValues></_>
        <_>
          <internalNodes>
            0 -1 131 1858391224 -1659314298 -1931083171 -844317184
            1315720428 -1410334732 -12841909 -51249545</internalNodes>
          <leafValues>
            -3.9086669683456421e-01 4.9901825189590454e-01</leafValues></_>
        <_>
          <internalNodes>
            0 -1 118 -109782776 -1274752368 2147128 890312192 -790806134
            1493172352 -77165942 18858522</internalNodes>
          <leafValues>
            -6.6664034128189087e-01 3.0608311295509338e-01</leafValues></_></weakClassifiers></_>
    <!-- stage 11 -->
    <_>
      <maxWeakCount>8</maxWeakCount>
      <stageThreshold>-8.5774850845336914e-01</stageThreshold>
      <weakClassifiers>
        <_>
          <internalNodes>
            0 -1 71 -537735314 -1806907866 -253228032 -1079948288
            1549028584 1547460532 -52425714 15158795</internalNodes>
          <leafValues>
            -1.6531792283058167e-01 6.8357259035110474e-01</leafValues></_>
        <_>
          <internalNodes>
            0 -1 76 -716707862 1096926634 -60535048 -256948476
            -196742124 -728684920 -1400997738 1363672539</internalNodes>
          <leafValues>
            -3.7884962558746338e-01 4.6601796150207520e-01</leafValues></_>
        <_>
          <internalNodes>
            0 -1 109 1643867754 1282794188 -1610463190 1080812160
            -783970165 17399944 -1304216949 1967632770</internalNodes>
          <leafValues>
            -4.3608585000038147e-01 4.1641679406166077e-01</leafValues></_>
        <_>
          <internalNodes>
            0 -1 99 -595658593 -1323196797 176989304 -327024989
            -1360572936 -33652750 -302205345 -17055945</internalNodes>
          <leafValues>
            -4.1429373621940613e-01 5.0537854433059692e-01</leafValues></_>
        <_>
          <internalNodes>
            0 -1 33 1422377154 -2008268670 134220428 -780124022
            1368383882 268771717 -790748765 1896721138</internalNodes>
          <leafValues>
            -5.1488405466079712e-01 3.9040893316268921e-01</leafValues></_>
        <_>
          <internalNodes>
            0 -1 136 -767003683 -1935257344 33621290 -2003674728
            1208566309 -1308589942 1342732300 -1427242392</internalNodes>
          <leafValues>
            -5.1666736602783203e-01 3.7420302629470825e-01</leafValues></_>
        <_>
          <internalNodes>
            0 -1 139 -782778228 -1785683951 353370328 -1626038272
            -1340276598 -30916478 -1278266712 836586339</internalNodes>
          <leafValues>
            -5.5141884088516235e-01 3.5137015581130981e-01</leafValues></_>
        <_>
          <internalNodes>
            0 -1 70 -715337700 -1735859540 1358957897 1568899971
            -380403281 1226908312 71344266 1397489288</internalNodes>
          <leafValues>
            -5.6975716352462769e-01 3.5120612382888794e-01</leafValues></_></weakClassifiers></_>
    <!-- stage 12 -->
    <_>
      <maxWeakCount>8</maxWeakCount>
      <stageThreshold>-1.7673084139823914e-01</stageThreshold>
      <weakClassifiers>
        <_>
          <internalNodes>
            0 -1 36 -993779108 521703040 83931037 235318420 -1206717704
            -1405541870 1246499037 457295113</internalNodes>
          <leafValues>
            -2.1691678464412689e-01 6.6085094213485718e-01</leafValues></_>
        <_>
          <internalNodes>
            0 -1 22 -52646657 -537068308 -858825473 -315824132 -3874821
            -537264159 -856633763 -807318469</internalNodes>
          <leafValues>
            -3.1700775027275085e-01 5.2022743225097656e-01</leafValues></_>
        <_>
          <internalNodes>
            0 -1 49 2112880638 1549132920 1285859332 -537141898
            1445583787 1553759864 983659274 1606406375</internalNodes>
          <leafValues>
            -3.7198656797409058e-01 4.7165992856025696e-01</leafValues></_>
        <_>
          <internalNodes>
            0 -1 121 -779946596 295735954 1158814164 -1668048046
            1409351904 1563742369 -1467921912 881196555</internalNodes>
          <leafValues>
            -6.1948692798614502e-01 2.7363511919975281e-01</leafValues></_>
        <_>
          <internalNodes>
            0 -1 124 -2080042991 -1369750896 -1336835843 462492352
            553681336 -1195244928 -2102844797 -1094702843</internalNodes>
          <leafValues>
            -5.5454891920089722e-01 2.7823981642723083e-01</leafValues></_>
        <_>
          <internalNodes>
            0 -1 30 1623340327 1427114259 404230298 -229985913
            -1442690510 2030108739 1484811013 -78460879</internalNodes>
          <leafValues>
            -4.8102179169654846e-01 3.7760406732559204e-01</leafValues></_>
        <_>
          <internalNodes>
            0 -1 92 -805115318 1503003540 -1719579447 -4734334 226494906
            1975681186 -397800533 1068000963</internalNodes>
          <leafValues>
            -5.2122390270233154e-01 3.5908380150794983e-01</leafValues></_>
        <_>
          <internalNodes>
            0 -1 68 -512185840 1393561622 1419250073 -1627323648
            -800882520 1317699650 277873871 2007965740</internalNodes>
          <leafValues>
            -4.8597630858421326e-01 4.1885662078857422e-01</leafValues></_></weakClassifiers></_>
    <!-- stage 13 -->
    <_>
      <maxWeakCount>9</maxWeakCount>
      <stageThreshold>-4.7353470325469971e-01</stageThreshold>
      <weakClassifiers>
        <_>
          <internalNodes>
            0 -1 27 -160965314 1492451046 182484600 -396206590
            -1406402562 -332353942 -353698069 1080541899</internalNodes>
          <leafValues>
            -5.9602648019790649e-02 7.0098537206649780e-01</leafValues></_>
        <_>
          <internalNodes>
            0 -1 146 5636096 1410507543 1007299071 -1154379511
            -2142893639 -125206389 -123705090 -1867383913</internalNodes>
          <leafValues>
            -3.9665353298187256e-01 4.1753506660461426e-01</leafValues></_>
        <_>
          <internalNodes>
            0 -1 133 294248634 1031863944 -1903638011 -806224448
            -998439736 -1380646931 -95646136 -122294313</internalNodes>
          <leafValues>
            -3.6749833822250366e-01 4.4617450237274170e-01</leafValues></_>
        <_>
          <internalNodes>
            0 -1 64 -1646222632 470123136 -2130702316 -1652321406
            -263667285 -120470894 -964214613 1909443110</internalNodes>
          <leafValues>
            -5.5727708339691162e-01 2.9504957795143127e-01</leafValues></_>
        <_>
          <internalNodes>
            0 -1 83 1431434999 -1189765239 -1905775275 -1379279357
            1280199814 -35749889 -19595698 -286392329</internalNodes>
          <leafValues>
            -3.5102862119674683e-01 5.0547081232070923e-01</leafValues></_>
        <_>
          <internalNodes>
            0 -1 75 1522623618 -262410107 -582873836 -846035962
            -1865114693 956342384 658868713 2064644531</internalNodes>
          <leafValues>
            -4.6625816822052002e-01 3.6279094219207764e-01</leafValues></_>
        <_>
          <internalNodes>
            0 -1 132 1342438350 1890629384 -1056960296 1162908224
            1204838828 698458252 -1467448664 1597601630</internalNodes>
          <leafValues>
            -4.8850232362747192e-01 3.9597645401954651e-01</leafValues></_>
        <_>
          <internalNodes>
            0 -1 159 -1797844697 285708426 185712754 -1438580484
            704974912 839483394 2039720436 -261957502</internalNodes>
          <leafValues>
            -5.1906442642211914e-01 3.4056469798088074e-01</leafValues></_>
        <_>
          <internalNodes>
            0 -1 128 -774402878 2123403522 1157628636 -1119853806
            1361119440 445788333 -917698344 1684466178</internalNodes>
          <leafValues>
            -5.8653408288955688e-01 3.1338918209075928e-01</leafValues></_></weakClassifiers></_>
    <!-- stage 14 -->
    <_>
      <maxWeakCount>9</maxWeakCount>
      <stageThreshold>-8.8239991664886475e-01</stageThreshold>
      <weakClassifiers>
        <_>
          <internalNodes>
            0 -1 162 -324054240 539164514 -872530912 -2136969360
            -1929638332 741605173 -2030275152 -1058736652</internalNodes>
          <leafValues>
            -2.3896498978137970e-01 6.4522886276245117e-01</leafValues></_>
        <_>
          <internalNodes>
            0 -1 13 -561106242 -656629542 774390275 -308157714
            -1193039170 -723633476 1229360883 1582278375</internalNodes>
          <leafValues>
            -4.2951142787933350e-01 4.1676551103591919e-01</leafValues></_>
        <_>
          <internalNodes>
            0 -1 81 1589701874 -1206809207 210673745 -1421222240
            -871478066 -587268102 -1415815350 -87031833</internalNodes>
          <leafValues>
            -3.4935110807418823e-01 4.6230629086494446e-01</leafValues></_>
        <_>
          <internalNodes>
            0 -1 94 1552664987 -1792363392 1363249298 -1399002675
            1377894585 1803550874 -1540162774 -389023039</internalNodes>
          <leafValues>
            -4.3787986040115356e-01 4.0884464979171753e-01</leafValues></_>
        <_>
          <internalNodes>
            0 -1 130 1597758091 363396898 -291070678 -1347555520
            1585270206 -273 -1904951957 -288442474</internalNodes>
          <leafValues>
            -3.7705767154693604e-01 4.7005063295364380e-01</leafValues></_>
        <_>
          <internalNodes>
            0 -1 60 -265124726 289485352 1611270280 763822603 809772028
            358389888 2021757903 2006600415</internalNodes>
          <leafValues>
            -5.4136019945144653e-01 3.5745841264724731e-01</leafValues></_>
        <_>
          <internalNodes>
            0 -1 1 1099568339 -85279062 -1879080963 -589834 843024895
            -311427603 218570174 -859024304</internalNodes>
          <leafValues>
            -4.0386554598808289e-01 4.4944089651107788e-01</leafValues></_>
        <_>
          <internalNodes>
            0 -1 114 1403041433 831443137 -1862072410 -559705918
            -1071048180 -393657216 -528373238 -591036191</internalNodes>
          <leafValues>
            -4.1880917549133301e-01 4.1728290915489197e-01</leafValues></_>
        <_>
          <internalNodes>
            0 -1 116 1581443203 -1668612766 1310247546 -808792182
            701247467 -1079541761 -1896078641 -556941357</internalNodes>
          <leafValues>
            -3.2028049230575562e-01 5.7689982652664185e-01</leafValues></_></weakClassifiers></_>
    <!-- stage 15 -->
    <_>
      <maxWeakCount>10</maxWeakCount>
      <stageThreshold>-3.1836456060409546e-01</stageThreshold>
      <weakClassifiers>
        <_>
          <internalNodes>
            0 -1 29 -1099236234 1583005322 1110085238 -1024061876
            -855707737 -824786978 1716685919 1109854826</internalNodes>
          <leafValues>
            -1.8652850389480591e-01 6.6418832540512085e-01</leafValues></_>
        <_>
          <internalNodes>
            0 -1 125 -863616958 -619671273 1018134527 -149700701
            -438005761 -42008577 -323903554 -37226509</internalNodes>
          <leafValues>
            -2.3772403597831726e-01 5.8025914430618286e-01</leafValues></_>
        <_>
          <internalNodes>
            0 -1 47 -784291606 276886062 -1912569796 -1383484925
            1080820147 1517856944 -494432331 99048138</internalNodes>
          <leafValues>
            -5.5555146932601929e-01 2.8690165281295776e-01</leafValues></_>
        <_>
          <internalNodes>
            0 -1 44 -251596168 -65822441 -1995931595 -1647246720
            -343762509 -1741059445 1396845747 2103437955</internalNodes>
          <leafValues>
            -4.9209457635879517e-01 3.0903372168540955e-01</leafValues></_>
        <_>
          <internalNodes>
            0 -1 93 814076098 -788016572 -1056946044 1417871874 80032336
            -767412182 1434649043 906052315</internalNodes>
          <leafValues>
            -6.4118582010269165e-01 2.2284378111362457e-01</leafValues></_>
        <_>
          <internalNodes>
            0 -1 149 1929605438 385913488 151191828 -586096608
            1895844004 471704197 -2147021827 672458848</internalNodes>
          <leafValues>
            -5.1952898502349854e-01 3.4883874654769897e-01</leafValues></_>
        <_>
          <internalNodes>
            0 -1 153 -213614915 1236288 1074057480 -1539157776
            -225375667 -1606384768 -1701200997 -894523128</internalNodes>
          <leafValues>
            -5.1728993654251099e-01 2.9980805516242981e-01</leafValues></_>
        <_>
          <internalNodes>
            0 -1 28 43447920 -135268762 -1515258385 -773730577
            2004484037 1585905377 -690688498 7463819</internalNodes>
          <leafValues>
            -4.0279969573020935e-01 4.4629985094070435e-01</leafValues></_>
        <_>
          <internalNodes>
            0 -1 101 38454434 -1795108671 1099989374 -1924013760
            -1040186679 -133656384 -1862059942 -288376157</internalNodes>
          <leafValues>
            -4.2951804399490356e-01 4.0254828333854675e-01</leafValues></_>
        <_>
          <internalNodes>
            0 -1 34 -330407258 -737832826 -2113764852 -1585207286
            -1810640640 939593896 -1599649645 474988579</internalNodes>
          <leafValues>
            -5.4418855905532837e-01 3.7954193353652954e-01</leafValues></_></weakClassifiers></_>
    <!-- stage 16 -->
    <_>
      <maxWeakCount>9</maxWeakCount>
      <stageThreshold>-7.5124651193618774e-01</stageThreshold>
      <weakClassifiers>
        <_>
          <internalNodes>
            0 -1 122 1583674680 788070252 -1342247320 -1372803294
            -50570004 503181181 -285717440 720334391</internalNodes>
          <leafValues>
            -1.4993804693222046e-01 6.6426557302474976e-01</leafValues></_>
        <_>
          <internalNodes>
            0 -1 155 -6327343 705727000 -637525800 -1534816156
            -1474796652 -2045902716 -525346172 -1930630724</internalNodes>
          <leafValues>
            -4.1190728545188904e-01 4.1416236758232117e-01</leafValues></_>
        <_>
          <internalNodes>
            0 -1 106 1574764415 -1083380036 1606266623 -625332486
            1593711996 -1879146498 -1092717314 -1092965314</internalNodes>
          <leafValues>
            -3.6651480197906494e-01 4.6259593963623047e-01</leafValues></_>
        <_>
          <internalNodes>
            0 -1 96 1452403905 956338306 -2130542396 -809430078
            1157649084 -125763456 -1743206386 -54009325</internalNodes>
          <leafValues>
            -4.4494789838790894e-01 3.6690151691436768e-01</leafValues></_>
        <_>
          <internalNodes>
            0 -1 42 -586811418 -796879995 -2004867954 -648594624
            1577268187 -2126511996 2057562005 1439009715</internalNodes>
          <leafValues>
            -4.3822988867759705e-01 3.7245857715606689e-01</leafValues></_>
        <_>
          <internalNodes>
            0 -1 120 2090059195 -1735852974 -558059911 -15074111
            -288597537 -52629801 -304247090 -20318269</internalNodes>
          <leafValues>
            -2.9648163914680481e-01 5.7204478979110718e-01</leafValues></_>
        <_>
          <internalNodes>
            0 -1 20 2049687254 -698185078 -541086145 -140456405
            121823154 -1174454274 1685989807 1474758252</internalNodes>
          <leafValues>
            -3.8808906078338623e-01 4.6444162726402283e-01</leafValues></_>
        <_>
          <internalNodes>
            0 -1 131 1580423931 -1089667454 1861550282 -848592960
            -1495511953 -68157443 -557916566 -285212681</internalNodes>
          <leafValues>
            -3.7423604726791382e-01 4.9786046147346497e-01</leafValues></_>
        <_>
          <internalNodes>
            0 -1 85 2129132594 -1627001216 1257758279 -427045276
            -18063938 -16842756 -17891633 -1157793930</internalNodes>
          <leafValues>
            -3.8734731078147888e-01 4.7889742255210876e-01</leafValues></_></weakClassifiers></_>
    <!-- stage 17 -->
    <_>
      <maxWeakCount>11</maxWeakCount>
      <stageThreshold>-4.3901905417442322e-01</stageThreshold>
      <weakClassifiers>
        <_>
          <internalNodes>
            0 -1 19 80650436 -993753556 516750836 218413264 117188053
            -1376186840 97967357 58031285</internalNodes>
          <leafValues>
            -2.8113877773284912e-01 6.2769049406051636e-01</leafValues></_>
        <_>
          <internalNodes>
            0 -1 0 -232402433 -134810516 -51601 -134418764 -285781611
            -269623305 100487321 -2006712272</internalNodes>
          <leafValues>
            -3.2710969448089600e-01 4.4717290997505188e-01</leafValues></_>
        <_>
          <internalNodes>
            0 -1 52 -909334276 -78138596 -6811363 1405862152 -372469264
            996055506 -1874714166 2070133674</internalNodes>
          <leafValues>
            -4.3591317534446716e-01 3.5255509614944458e-01</leafValues></_>
        <_>
          <internalNodes>
            0 -1 103 -711747393 -1551818484 17862683 -36253308
            -511164293 -125107829 -217857877 -528110221</internalNodes>
          <leafValues>
            -4.4931235909461975e-01 3.6036905646324158e-01</leafValues></_>
        <_>
          <internalNodes>
            0 -1 115 -1788875574 -1656489978 -2113863532 -156483327
            -2134596382 -1309614044 -471926134 937393027</internalNodes>
          <leafValues>
            -4.6710282564163208e-01 3.5899546742439270e-01</leafValues></_>
        <_>
          <internalNodes>
            0 -1 158 -779440030 -175832812 -1610526588 -123752240
            -1333622541 -1971191652 -117192512 -1057203508</internalNodes>
          <leafValues>
            -4.0736714005470276e-01 3.9535707235336304e-01</leafValues></_>
        <_>
          <internalNodes>
            0 -1 110 -263089074 -568753517 -1676588736 -545079166
            -1073633057 1233191047 -1417606848 883260675</internalNodes>
          <leafValues>
            -4.5529335737228394e-01 3.9078265428543091e-01</leafValues></_>
        <_>
          <internalNodes>
            0 -1 17 1376454771 -639680109 -2146410072 -765734447
            1753219641 1761675298 -536708592 -164115647</internalNodes>
          <leafValues>
            -4.8452562093734741e-01 3.6223611235618591e-01</leafValues></_>
        <_>
          <internalNodes>
            0 -1 50 -2097108580 -1743540224 -954917542 -1626109016
            -317412432 134996122 -264003366 1262196910</internalNodes>
          <leafValues>
            -5.3096973896026611e-01 3.6652541160583496e-01</leafValues></_>
        <_>
          <internalNodes>
            0 -1 104 1563614874 691060394 -286327296 -316014877
            -26313635 -1612843083 -431735258 -154797065</internalNodes>
          <leafValues>
            -3.9051663875579834e-01 4.7709932923316956e-01</leafValues></_>
        <_>
          <internalNodes>
            0 -1 141 1580190867 993574898 2141085616 -1882657820
            -807121465 -557058 -965763233 -352454669</internalNodes>
          <leafValues>
            -3.7551483511924744e-01 4.7188836336135864e-01</leafValues></_></weakClassifiers></_>
    <!-- stage 18 -->
    <_>
      <maxWeakCount>9</maxWeakCount>
      <stageThreshold>-5.2655678987503052e-01</stageThreshold>
      <weakClassifiers>
        <_>
          <internalNodes>
            0 -1 38 -51421378 -1068041106 -55951976 -571843576
            -597378053 -935056276 -1497383686 142564495</internalNodes>
          <leafValues>
            -2.1505376324057579e-02 7.0180302858352661e-01</leafValues></_>
        <_>
          <internalNodes>
            0 -1 148 -797967100 -1217005931 -1128480836 -1214187743
            2082432896 888093970 -320524628 1692794647</internalNodes>
          <leafValues>
            -3.7495997548103333e-01 4.0665897727012634e-01</leafValues></_>
        <_>
          <internalNodes>
            0 -1 56 -395249858 -19470366 -253670275 366298539 1283366635
            1481965556 1817617055 1608499851</internalNodes>
          <leafValues>
            -3.6727374792098999e-01 4.1191667318344116e-01</leafValues></_>
        <_>
          <internalNodes>
            0 -1 96 300927419 -1333591890 1091109934 -2322334 2021851744
            -1047885694 -398333288 -322062142</internalNodes>
          <leafValues>
            -4.4448298215866089e-01 3.7806397676467896e-01</leafValues></_>
        <_>
          <internalNodes>
            0 -1 91 1894130856 2073625502 -1019215863 -1753116662
            -2126001943 1695670404 -369816978 1692648018</internalNodes>
          <leafValues>
            -5.1730167865753174e-01 3.1920471787452698e-01</leafValues></_>
        <_>
          <internalNodes>
            0 -1 78 1910722698 805868224 1302462474 -1691661429
            -249306688 1409622064 852404384 865694434</internalNodes>
          <leafValues>
            -6.2236922979354858e-01 2.6588508486747742e-01</leafValues></_>
        <_>
          <internalNodes>
            0 -1 57 1593732927 -562905228 1593769982 -25493761
            -1091154089 -1334378635 -50528882 -1285370026</internalNodes>
          <leafValues>
            -3.9955687522888184e-01 4.4308102130889893e-01</leafValues></_>
        <_>
          <internalNodes>
            0 -1 23 567202203 -457141886 69702 -57245486 864764083
            -208658166 319377716 -1618628444</internalNodes>
          <leafValues>
            -4.7098520398139954e-01 3.7402582168579102e-01</leafValues></_>
        <_>
          <internalNodes>
            0 -1 9 -2144434944 -584276938 -1895634679 -1974802296
            -548828764 463722752 -1018904039 1232001064</internalNodes>
          <leafValues>
            -6.0280287265777588e-01 3.0112513899803162e-01</leafValues></_></weakClassifiers></_>
    <!-- stage 19 -->
    <_>
      <maxWeakCount>10</maxWeakCount>
      <stageThreshold>-7.9645508527755737e-01</stageThreshold>
      <weakClassifiers>
        <_>
          <internalNodes>
            0 -1 3 1164367054 1151389420 -621121544 -322158806
            -598282254 779386676 -856115590 1080600682</internalNodes>
          <leafValues>
            -2.1604938805103302e-01 6.3842481374740601e-01</leafValues></_>
        <_>
          <internalNodes>
            0 -1 137 -1968504617 720247891 2080325619 -1082446046
            -1132665639 -1048585 -17418606 -1165329178</internalNodes>
          <leafValues>
            -3.0728897452354431e-01 4.6273142099380493e-01</leafValues></_>
        <_>
          <internalNodes>
            0 -1 25 -788296052 1984995878 1879573531 1053241558
            1292456881 1388064915 -798537037 1423403719</internalNodes>
          <leafValues>
            -4.2326402664184570e-01 3.4030354022979736e-01</leafValues></_>
        <_>
          <internalNodes>
            0 -1 45 -253254962 -790514996 1090658320 2072222667
            2018485002 -922713808 537389584 1804073056</internalNodes>
          <leafValues>
            -5.4328429698944092e-01 2.2046376764774323e-01</leafValues></_>
        <_>
          <internalNodes>
            0 -1 66 -955473768 -3063644 -1593791795 -715995494
            -935417350 -1612015336 1073776008 2053768842</internalNodes>
          <leafValues>
            -5.4928910732269287e-01 2.8175741434097290e-01</leafValues></_>
        <_>
          <internalNodes>
            0 -1 126 -1916345694 2068299806 240803898 -16621568
            272729246 1112023040 1121445103 264492499</internalNodes>
          <leafValues>
            -4.0024071931838989e-01 4.0839305520057678e-01</leafValues></_>
        <_>
          <internalNodes>
            0 -1 156 -242239145 -1270672365 276994433 -1001877300
            641862314 -1458005880 -1962472772 -54599572</internalNodes>
          <leafValues>
            -4.3890413641929626e-01 3.6556303501129150e-01</leafValues></_>
        <_>
          <internalNodes>
            0 -1 127 505464967 -1104412758 799601833 -1953841218
            1878854904 -1671203 -285950185 -51251529</internalNodes>
          <leafValues>
            -3.3808663487434387e-01 5.1016259193420410e-01</leafValues></_>
        <_>
          <internalNodes>
            0 -1 140 -171460630 -406821312 -1538735075 -178241022
            1388612708 -1146945333 -1570496262 2093342207</internalNodes>
          <leafValues>
            -4.5502516627311707e-01 3.8895025849342346e-01</leafValues></_>
        <_>
          <internalNodes>
            0 -1 55 -787238180 -783110000 16845165 -586328831 985792558
            -1050566592 922755625 1981281194</internalNodes>
          <leafValues>
            -4.2364430427551270e-01 4.2815613746643066e-01</leafValues></_></weakClassifiers></_>
    <!-- stage 20 -->
    <_>
      <maxWeakCount>9</maxWeakCount>
      <stageThreshold>-3.5264921188354492e-01</stageThreshold>
      <weakClassifiers>
        <_>
          <internalNodes>
            0 -1 90 -1602224128 -1400750582 771178429 -598229072
            -33579268 -33574978 -2072634356 -457756685</internalNodes>
          <leafValues>
            -1.1701170355081558e-02 6.9678092002868652e-01</leafValues></_>
        <_>
          <internalNodes>
            0 -1 145 -1109008453 -1104936964 -538059112 -318903087
            2095067125 -1400963588 -940246851 -1465975060</internalNodes>
          <leafValues>
            -2.8455403447151184e-01 5.1267755031585693e-01</leafValues></_>
        <_>
          <internalNodes>
            0 -1 142 1424169170 -1115619408 1298746736 -840958400
            -808959972 -1179658 -1437545142 -20581663</internalNodes>
          <leafValues>
            -3.7428501248359680e-01 4.1796404123306274e-01</leafValues></_>
        <_>
          <internalNodes>
            0 -1 135 -129875306 294240384 -855408635 -641617408
            310456441 -259866623 -759133617 -252333465</internalNodes>
          <leafValues>
            -4.9655583500862122e-01 2.9683110117912292e-01</leafValues></_>
        <_>
          <internalNodes>
            0 -1 73 -737883074 1108922660 -249804399 479264850
            1212562813 413926196 -1186881489 457160746</internalNodes>
          <leafValues>
            -4.2158079147338867e-01 4.0958145260810852e-01</leafValues></_>
        <_>
          <internalNodes>
            0 -1 120 1498997479 9475097 9651339 -1928722424 1245778479
            -360707445 -490681853 -55850377</internalNodes>
          <leafValues>
            -4.6131810545921326e-01 3.4111770987510681e-01</leafValues></_>
        <_>
          <internalNodes>
            0 -1 67 -1203328996 1471799449 298880317 1367445410
            -1030870606 617662594 -1324184146 731843084</internalNodes>
          <leafValues>
            -4.2642569541931152e-01 3.9456802606582642e-01</leafValues></_>
        <_>
          <internalNodes>
            0 -1 112 1155984535 481488770 251153173 -6308352 2147446248
            -32769 -50561307 -20056095</internalNodes>
          <leafValues>
            -3.7994351983070374e-01 4.5920255780220032e-01</leafValues></_>
        <_>
          <internalNodes>
            0 -1 51 -2008768496 1887441964 785 179412394 -1604294088
            724208027 -1310161878 1167509664</internalNodes>
          <leafValues>
            -6.2540996074676514e-01 3.5045671463012695e-01</leafValues></_></weakClassifiers></_>
    <!-- stage 21 -->
    <_>
      <maxWeakCount>9</maxWeakCount>
      <stageThreshold>-3.8982781767845154e-01</stageThreshold>
      <weakClassifiers>
        <_>
          <internalNodes>
            0 -1 4 -858855188 -833687842 -53551492 77393564 -445972481
            1874787955 1550687745 1322926640</internalNodes>
          <leafValues>
            -3.3070865273475647e-01 6.2084764242172241e-01</leafValues></_>
        <_>
          <internalNodes>
            0 -1 138 -531446592 -180665529 67260223 -149880574
            -2053248268 -1719662365 -1664494885 1015537491</internalNodes>
          <leafValues>
            -3.5018634796142578e-01 4.1878771781921387e-01</leafValues></_>
        <_>
          <internalNodes>
            0 -1 41 -1744847169 120253963 -17375489 1513762683
            -805417459 2070898516 -4897 -177009478</internalNodes>
          <leafValues>
            -3.6129379272460938e-01 3.9281138777732849e-01</leafValues></_>
        <_>
          <internalNodes>
            0 -1 2 -574130954 -313028285 -2130505463 -640970494
            1343234060 -805298176 -785682814 -601252394</internalNodes>
          <leafValues>
            -4.1489651799201965e-01 3.8970157504081726e-01</leafValues></_>
        <_>
          <internalNodes>
            0 -1 63 1402169221 -1216331680 -535752638 -397831934
            -369031527 -239501176 -937930738 -83969341</internalNodes>
          <leafValues>
            -3.9435800909996033e-01 4.2532956600189209e-01</leafValues></_>
        <_>
          <internalNodes>
            0 -1 102 2011199512 404455682 625215496 -146718141
            -1060861526 -777987984 -2071902049 938822158</internalNodes>
          <leafValues>
            -5.0662398338317871e-01 3.5242795944213867e-01</leafValues></_>
        <_>
          <internalNodes>
            0 -1 16 -1039330789 2013741453 -771739524 -263343914
            1661493312 1526923345 730878772 -78424027</internalNodes>
          <leafValues>
            -4.2029646039009094e-01 3.8164871931076050e-01</leafValues></_>
        <_>
          <internalNodes>
            0 -1 119 409061629 805863808 -1610547071 -586317039
            -1434433058 -1207893879 -1442072566 -387325309</internalNodes>
          <leafValues>
            -3.9845636487007141e-01 4.3365970253944397e-01</leafValues></_>
        <_>
          <internalNodes>
            0 -1 66 1494394008 506893736 -667678487 392598123
            -2106611269 509752062 -1732015608 673892999</internalNodes>
          <leafValues>
            -4.8945221304893494e-01 3.9882585406303406e-01</leafValues></_></weakClassifiers></_>
    <!-- stage 22 -->
    <_>
      <maxWeakCount>10</maxWeakCount>
      <stageThreshold>-5.1442772150039673e-01</stageThreshold>
      <weakClassifiers>
        <_>
          <internalNodes>
            0 -1 54 -668809126 -2147422560 -1532453248 -845067264
            -1664291352 -589505052 -1024586036 10963522</internalNodes>
          <leafValues>
            -3.0350193381309509e-01 6.1847388744354248e-01</leafValues></_>
        <_>
          <internalNodes>
            0 -1 18 -398217534 -1296498168 -184434277 1881674325
            1940605824 -346320837 1427616333 1080120318</internalNodes>
          <leafValues>
            -3.8634470105171204e-01 3.8524487614631653e-01</leafValues></_>
        <_>
          <internalNodes>
            0 -1 160 -69216501 1932148736 -1878278056 1279308032
            -788328087 2030141472 -435516740 -1595411512</internalNodes>
          <leafValues>
            -3.5214573144912720e-01 4.1033589839935303e-01</leafValues></_>
        <_>
          <internalNodes>
            0 -1 72 -1294547948 -1332727470 -735947491 -577658365
            -1815688405 1486155936 -1334927190 1270557455</internalNodes>
          <leafValues>
            -5.4801678657531738e-01 2.5281050801277161e-01</leafValues></_>
        <_>
          <internalNodes>
            0 -1 85 1425931909 75558032 1236815486 -998056158 -287040128
            -268632372 -17899811 -17971212</internalNodes>
          <leafValues>
            -3.6963248252868652e-01 4.1975271701812744e-01</leafValues></_>
        <_>
          <internalNodes>
            0 -1 32 -1068072419 -1672232679 1544814686 -728229625
            763433023 956432914 -1073675648 -345774030</internalNodes>
          <leafValues>
            -5.1201081275939941e-01 2.8161770105361938e-01</leafValues></_>
        <_>
          <internalNodes>
            0 -1 105 -748684426 294973744 1392510208 -1471725568
            -434626232 -93290064 -1367205745 854817602</internalNodes>
          <leafValues>
            -4.5188546180725098e-01 3.6723268032073975e-01</leafValues></_>
        <_>
          <internalNodes>
            0 -1 150 1920418882 268927024 -787472492 -1006362280
            719534896 176849051 149418224 -320540660</internalNodes>
          <leafValues>
            -5.4904848337173462e-01 3.2387509942054749e-01</leafValues></_>
        <_>
          <internalNodes>
            0 -1 86 1484821118 848351336 336107808 -134850045 1511014630
            2015889713 -1064810705 754706955</internalNodes>
          <leafValues>
            -5.8655518293380737e-01 2.4551115930080414e-01</leafValues></_>
        <_>
          <internalNodes>
            0 -1 35 -973034888 1932833566 604539065 360874523
            -1073184128 1142589584 -1541039114 1470398848</internalNodes>
          <leafValues>
            -5.6242549419403076e-01 2.8402474522590637e-01</leafValues></_></weakClassifiers></_></stages>
  <features>
    <_>
      <rect>
        0 0 1 2</rect></_>
    <_>
      <rect>
        0 0 2 2</rect></_>
    <_>
      <rect>
        0 0 2 5</rect></_>
    <_>
      <rect>
        0 1 2 5</rect></_>
    <_>
      <rect>
        0 1 4 5</rect></_>
    <_>
      <rect>
        0 1 5 2</rect></_>
    <_>
      <rect>
        0 1 5 5</rect></_>
    <_>
      <rect>
        0 2 1 1</rect></_>
    <_>
      <rect>
        0 2 4 2</rect></_>
    <_>
      <rect>
        0 2 4 3</rect></_>
    <_>
      <rect>
        0 3 2 4</rect></_>
    <_>
      <rect>
        0 3 3 3</rect></_>
    <_>
      <rect>
        0 3 5 2</rect></_>
    <_>
      <rect>
        0 4 3 3</rect></_>
    <_>
      <rect>
        0 6 1 1</rect></_>
    <_>
      <rect>
        0 7 3 3</rect></_>
    <_>
      <rect>
        0 10 1 1</rect></_>
    <_>
      <rect>
        0 12 1 1</rect></_>
    <_>
      <rect>
        1 0 2 3</rect></_>
    <_>
      <rect>
        1 0 5 4</rect></_>
    <_>
      <rect>
        1 1 3 2</rect></_>
    <_>
      <rect>
        1 1 3 3</rect></_>
    <_>
      <rect>
        1 1 5 5</rect></_>
    <_>
      <rect>
        1 2 1 1</rect></_>
    <_>
      <rect>
        1 2 5 4</rect></_>
    <_>
      <rect>
        1 3 2 2</rect></_>
    <_>
      <rect>
        1 4 4 2</rect></_>
    <_>
      <rect>
        1 6 2 3</rect></_>
    <_>
      <rect>
        1 8 3 2</rect></_>
    <_>
      <rect>
        1 10 3 2</rect></_>
    <_>
      <rect>
        1 12 1 1</rect></_>
    <_>
      <rect>
        1 13 1 1</rect></_>
    <_>
      <rect>
        1 13 3 1</rect></_>
    <_>
      <rect>
        2 0 2 5</rect></_>
    <_>
      <rect>
        2 3 2 3</rect></_>
    <_>
      <rect>
        2 3 3 2</rect></_>
    <_>
      <rect>
        2 3 4 3</rect></_>
    <_>
      <rect>
        2 5 2 3</rect></_>
    <_>
      <rect>
        2 7 2 3</rect></_>
    <_>
      <rect>
        2 7 3 2</rect></_>
    <_>
      <rect>
        2 10 3 2</rect></_>
    <_>
      <rect>
        2 13 2 1</rect></_>
    <_>
      <rect>
        3 0 2 5</rect></_>
    <_>
      <rect>
        3 1 2 5</rect></_>
    <_>
      <rect>
        3 2 3 2</rect></_>
    <_>
      <rect>
        3 3 2 3</rect></_>
    <_>
      <rect>
        3 3 3 2</rect></_>
    <_>
      <rect>
        3 4 2 2</rect></_>
    <_>
      <rect>
        3 4 2 3</rect></_>
    <_>
      <rect>
        3 4 2 4</rect></_>
    <_>
      <rect>
        3 4 3 2</rect></_>
    <_>
      <rect>
        3 5 3 2</rect></_>
    <_>
      <rect>
        3 6 3 2</rect></_>
    <_>
      <rect>
        3 6 4 2</rect></_>
    <_>
      <rect>
        3 7 2 2</rect></_>
    <_>
      <rect>
        3 7 3 2</rect></_>
    <_>
      <rect>
        3 9 3 2</rect></_>
    <_>
      <rect>
        3 13 1 1</rect></_>
    <_>
      <rect>
        4 0 1 2</rect></_>
    <_>
      <rect>
        4 1 4 3</rect></_>
    <_>
      <rect>
        4 2 2 3</rect></_>
    <_>
      <rect>
        4 2 3 2</rect></_>
    <_>
      <rect>
        4 3 2 2</rect></_>
    <_>
      <rect>
        4 5 1 1</rect></_>
    <_>
      <rect>
        4 5 2 2</rect></_>
    <_>
      <rect>
        4 5 2 3</rect></_>
    <_>
      <rect>
        4 5 3 2</rect></_>
    <_>
      <rect>
        4 6 3 2</rect></_>
    <_>
      <rect>
        4 7 3 2</rect></_>
    <_>
      <rect>
        4 8 2 2</rect></_>
    <_>
      <rect>
        4 8 3 2</rect></_>
    <_>
      <rect>
        4 9 2 2</rect></_>
    <_>
      <rect>
        4 9 3 2</rect></_>
    <_>
      <rect>
        4 10 3 2</rect></_>
    <_>
      <rect>
        5 0 2 5</rect></_>
    <_>
      <rect>
        5 1 2 3</rect></_>
    <_>
      <rect>
        5 1 2 5</rect></_>
    <_>
      <rect>
        5 2 1 1</rect></_>
    <_>
      <rect>
        5 3 2 3</rect></_>
    <_>
      <rect>
        5 5 2 3</rect></_>
    <_>
      <rect>
        5 5 3 2</rect></_>
    <_>
      <rect>
        5 6 1 1</rect></_>
    <_>
      <rect>
        5 6 2 1</rect></_>
    <_>
      <rect>
        5 7 1 1</rect></_>
    <_>
      <rect>
        5 7 2 2</rect></_>
    <_>
      <rect>
        5 8 1 1</rect></_>
    <_>
      <rect>
        5 8 2 2</rect></_>
    <_>
      <rect>
        5 12 1 1</rect></_>
    <_>
      <rect>
        5 13 1 1</rect></_>
    <_>
      <rect>
        6 0 1 1</rect></_>
    <_>
      <rect>
        6 1 2 1</rect></_>
    <_>
      <rect>
        6 2 2 2</rect></_>
    <_>
      <rect>
        6 3 2 2</rect></_>
    <_>
      <rect>
        6 3 2 3</rect></_>
    <_>
      <rect>
        6 4 1 1</rect></_>
    <_>
      <rect>
        6 4 2 3</rect></_>
    <_>
      <rect>
        6 5 1 1</rect></_>
    <_>
      <rect>
        6 5 2 3</rect></_>
    <_>
      <rect>
        6 5 3 2</rect></_>
    <_>
      <rect>
        6 6 1 1</rect></_>
    <_>
      <rect>
        6 6 2 2</rect></_>
    <_>
      <rect>
        6 7 1 1</rect></_>
    <_>
      <rect>
        6 7 2 2</rect></_>
    <_>
      <rect>
        6 8 1 1</rect></_>
    <_>
      <rect>
        6 9 1 1</rect></_>
    <_>
      <rect>
        6 10 2 2</rect></_>
    <_>
      <rect>
        6 13 1 1</rect></_>
    <_>
      <rect>
        7 0 1 1</rect></_>
    <_>
      <rect>
        7 0 3 4</rect></_>
    <_>
      <rect>
        7 1 2 5</rect></_>
    <_>
      <rect>
        7 2 2 2</rect></_>
    <_>
      <rect>
        7 3 3 3</rect></_>
    <_>
      <rect>
        7 4 1 1</rect></_>
    <_>
      <rect>
        7 4 2 3</rect></_>
    <_>
      <rect>
        7 5 1 1</rect></_>
    <_>
      <rect>
        7 5 2 3</rect></_>
    <_>
      <rect>
        7 6 1 1</rect></_>
    <_>
      <rect>
        7 6 2 3</rect></_>
    <_>
      <rect>
        7 6 3 2</rect></_>
    <_>
      <rect>
        7 7 1 1</rect></_>
    <_>
      <rect>
        7 8 1 1</rect></_>
    <_>
      <rect>
        7 8 2 2</rect></_>
    <_>
      <rect>
        7 9 1 2</rect></_>
    <_>
      <rect>
        7 13 1 1</rect></_>
    <_>
      <rect>
        8 0 1 1</rect></_>
    <_>
      <rect>
        8 0 2 2</rect></_>
    <_>
      <rect>
        8 1 2 4</rect></_>
    <_>
      <rect>
        8 4 1 1</rect></_>
    <_>
      <rect>
        8 4 2 2</rect></_>
    <_>
      <rect>
        8 4 2 3</rect></_>
    <_>
      <rect>
        8 5 1 1</rect></_>
    <_>
      <rect>
        8 7 1 1</rect></_>
    <_>
      <rect>
        8 7 2 3</rect></_>
    <_>
      <rect>
        8 8 1 1</rect></_>
    <_>
      <rect>
        8 8 1 2</rect></_>
    <_>
      <rect>
        8 9 1 1</rect></_>
    <_>
      <rect>
        8 13 1 1</rect></_>
    <_>
      <rect>
        9 0 1 1</rect></_>
    <_>
      <rect>
        9 0 2 3</rect></_>
    <_>
      <rect>
        9 4 2 2</rect></_>
    <_>
      <rect>
        9 4 2 3</rect></_>
    <_>
      <rect>
        9 6 1 1</rect></_>
    <_>
      <rect>
        9 7 1 1</rect></_>
    <_>
      <rect>
        9 7 2 2</rect></_>
    <_>
      <rect>
        9 11 1 1</rect></_>
    <_>
      <rect>
        9 13 1 1</rect></_>
    <_>
      <rect>
        10 0 2 2</rect></_>
    <_>
      <rect>
        10 1 2 2</rect></_>
    <_>
      <rect>
        10 3 2 2</rect></_>
    <_>
      <rect>
        10 7 2 3</rect></_>
    <_>
      <rect>
        10 10 2 2</rect></_>
    <_>
      <rect>
        10 11 2 1</rect></_>
    <_>
      <rect>
        10 12 1 1</rect></_>
    <_>
      <rect>
        10 13 1 1</rect></_>
    <_>
      <rect>
        11 0 1 1</rect></_>
    <_>
      <rect>
        11 12 1 1</rect></_>
    <_>
      <rect>
        11 13 1 1</rect></_>
    <_>
      <rect>
        12 2 1 1</rect></_>
    <_>
      <rect>
        12 11 1 1</rect></_>
    <_>
      <rect>
        13 5 1 1</rect></_>
    <_>
      <rect>
        13 7 1 2</rect></_>
    <_>
      <rect>
        13 9 1 1</rect></_>
    <_>
      <rect>
        13 10 1 1</rect></_></features></cascade>
</opencv_storage>
